<?xml version="1.0"?>
<opencv_storage>
<nnetwork type_id="opencv-ml-ann-mlp">
  <layer_sizes type_id="opencv-matrix">
    <rows>1</rows>
    <cols>3</cols>
    <dt>i</dt>
    <data>
      6 50 10</data></layer_sizes>
  <activation_function>SIGMOID_SYM</activation_function>
  <f_param1>6.6666666666666663e-001</f_param1>
  <f_param2>1.7159000000000000e+000</f_param2>
  <min_val>-9.4999999999999996e-001</min_val>
  <max_val>9.4999999999999996e-001</max_val>
  <min_val1>-9.7999999999999998e-001</min_val1>
  <max_val1>9.7999999999999998e-001</max_val1>
  <training_params>
    <train_method>BACKPROP</train_method>
    <dw_scale>1.0000000000000001e-001</dw_scale>
    <moment_scale>1.0000000000000001e-001</moment_scale>
    <term_criteria><epsilon>9.9999997473787516e-006</epsilon>
      <iterations>1000</iterations></term_criteria></training_params>
  <input_scale>
    2.0807448450924011e+000 -3.3686164157938309e-001
    1.7510646990462659e+000 -1.2027369867630738e-001
    1.3196622757391792e+000 1.3769450382362394e+000
    6.9050523073781953e+000 -5.9258584069298448e-001
    5.5890155972216515e+000 -4.0963953738195608e-001
    5.3912159019803623e+000 -4.3677901856710111e-001</input_scale>
  <output_scale>
    1.0526315789473684e+000 0. 1.0526315789473684e+000 0.
    1.0526315789473684e+000 0. 1.0526315789473684e+000 0.
    1.0526315789473684e+000 0. 1.0526315789473684e+000 0.
    1.0526315789473684e+000 0. 1.0526315789473684e+000 0.
    1.0526315789473684e+000 0. 1.0526315789473684e+000 0.</output_scale>
  <inv_output_scale>
    9.4999999999999996e-001 0. 9.4999999999999996e-001 0.
    9.4999999999999996e-001 0. 9.4999999999999996e-001 0.
    9.4999999999999996e-001 0. 9.4999999999999996e-001 0.
    9.4999999999999996e-001 0. 9.4999999999999996e-001 0.
    9.4999999999999996e-001 0. 9.4999999999999996e-001 0.</inv_output_scale>
  <weights>
    <_>
      -1.1487948093092383e+002 5.8579482626444852e+000
      -2.1849946446667792e+000 -2.4362072451006562e+000
      2.2261896431282953e+000 6.4082687985441540e+000
      4.1785030314102753e+000 2.1287414740916755e+000
      -1.4993282752145189e+000 -3.3042731172265150e+000
      -2.4084512337306596e+000 2.2790477044243440e+000
      5.5399456966810705e+000 1.6627495401911447e+000
      1.4561063300980961e+000 -1.9717111446871143e+000
      -3.8653412558978300e+000 7.8604208640477555e-002
      2.3144241591264230e+000 -2.4029202362469677e+000
      2.3058256989439236e+000 -2.6593588222171227e-001
      -4.9605020808472196e+000 3.8522173118433924e+000
      2.3479137318658960e+001 3.5685195814686460e-002
      2.7414606484633119e-001 -2.4338141011456735e+000
      -8.5608422964884703e+000 -1.5127351650176660e+001
      5.6123571266955530e+000 1.2045777037725246e+001
      1.5819552499136034e+000 1.7815260626037730e+000
      -1.9801134601028498e+000 4.1627048301870264e+000
      -1.0192612571059259e+000 -2.4063473775434026e+000
      -5.1441309286376393e+000 -5.1750825538457357e-001
      6.0302117825033967e-002 2.2768783929116907e+000
      -1.1908834759468634e+000 4.1622262819428686e+000
      -3.1927913512018913e+000 -2.7349204477398041e+000
      -8.6680320622131254e-002 -1.2441180683302033e+001
      3.9044781173798331e+000 -1.7277378567605691e+001
      1.9954701329847083e+002 6.6922520106054133e+000
      4.1055988870915749e+000 3.9787789521901353e+000
      -4.5251552204014684e+000 -8.2157237094321045e-001
      -3.1174185847013408e-001 -1.3969459595956032e+001
      -9.3571045281839762e+000 8.8180543416768808e-001
      4.0040339542031624e+000 -2.0241487406481434e-001
      1.0200826746011465e+001 3.9399593167009437e+000
      2.8902522619655741e-001 4.0302557448726031e+000
      1.2006126746130676e-001 -2.0697158192178672e-001
      -4.0432018242080909e+000 -7.4456948724011767e+000
      -4.2392182673036922e+000 -5.1240126819898335e-001
      5.4829705471271781e+000 -4.9147138473980681e-002
      -1.6751040635834049e+000 7.5689299459834758e-001
      4.1192571704079362e-001 -8.0193459581962589e-001
      1.9024669682020681e+000 -9.3805192216221245e-001
      -1.1313415859493756e+000 -2.9790185718155275e+001
      -4.4872180112134084e+000 -4.0637982449966321e+000
      4.3782471858330556e+000 -2.8678515386114256e+000
      -7.6589131320512598e+000 2.6533925602865074e-002
      1.3898410844450049e+000 -1.9357961098193430e-001
      -1.8017110784994797e-001 -4.3614062766316000e+000
      -3.4623694653521842e+000 -7.0568930891385651e-001
      3.9517435754190472e-001 5.4750123105602302e-002
      3.0622022172056845e-001 -3.1026355219775265e+001
      7.8545883997068727e-003 3.5632056687383362e+000
      2.1396980060127839e+002 8.8162174685172321e+000
      4.6006179645083822e+000 4.9016190973959981e+000
      -4.1425956977722684e+000 2.3246747537289705e-001
      -1.0649429971745707e+000 2.2405004249419669e+000
      -1.3208450627269166e+000 1.0603799122174373e+000
      4.7014530247726807e+000 -1.4548383149182833e+000
      9.0737141720583669e-001 -3.3055080761896241e+000
      -5.7802245974034039e-001 4.7372431753615061e+000
      1.1859645473845262e+000 1.6028464324401973e-001
      -4.1965565939340932e+000 4.6258309439436190e-001
      -4.7463869324090595e+000 2.6283360482957430e-001
      3.7644334489890490e+000 -1.3853287375126428e+000
      8.3172617089910617e+000 -2.3208862979567654e-001
      -2.8581548452210837e-001 -1.1789837438638331e+001
      -5.4955338852083360e+000 5.6193061726725295e+000
      2.3826443485529117e-001 1.3762019759538715e+001
      -4.2598582991380685e+000 -4.5370924584070851e+000
      4.2276934255814700e+000 -4.6213567356767440e+000
      1.1781148273794666e-001 1.0533459181114799e+000
      -1.8749382043816440e+000 -4.0835007103915033e-001
      3.1538087061732376e-002 -4.3962913844854281e+000
      -1.3777154932490392e+001 -6.3948140043565110e-002
      6.9397793080435202e+000 2.1932872736972149e+000
      -4.1774633662978011e-002 -2.3452525285650405e+000
      -1.3509043552133613e+000 -4.8401966081669938e+000
      9.7790380195699072e+001 1.0833888416437491e+001
      8.1792214776984007e-001 8.7702439189636638e-001
      -1.0571330606797811e+000 -3.2610566380405164e+000
      -4.8849738193284855e+000 3.0914251115450181e+001
      -9.0566005515552170e+000 4.1367637244512796e+000
      1.0597489364544734e+000 -8.8493630052771994e+000
      9.2642420858898511e+000 1.8577158113593519e+000
      1.2586228478828885e+000 6.7741645650828730e-001
      4.8631679938437671e+000 -3.6243092882679140e-001
      -8.3332746324629170e-001 -4.2649015959608249e+001
      -1.2016235646777988e+000 2.9180148522390104e-001
      3.6358458871044591e-001 -4.9543696898360219e+000
      -8.4807736508813072e+000 -2.2350391488714647e-001
      -1.3421061114255195e-001 -2.9461533827753157e+000
      -3.5048901723598105e+000 1.6470046841022583e+000
      -3.1894415422317555e+000 2.4116217479145550e+000
      -1.7054546614049317e+000 -1.4640753931030090e+000
      6.7152101824575849e-001 1.5440085336827423e+000
      1.9494290980887701e+001 8.0760710132235793e+000
      5.1157904485385055e+000 1.8798495419471242e-001
      -5.0317910401215409e-002 -1.1984201052147039e+000
      1.3796081231372075e+000 -4.3850753177118778e+000
      2.7841777328031522e+001 4.3706770343173220e+000
      -7.5461433335313854e-002 -4.9857465995022956e+000
      -5.4740591062587809e+000 -7.3649087853841904e+000
      1.5519539963575559e+002 -2.0135998458407756e-001
      1.5814246931151728e+000 1.5482446909170735e+000
      -8.4081956422348647e-001 -2.3717165929855004e+000
      -3.0442491273869465e+000 1.0005698131922202e+001
      -8.8820140305390399e-002 2.5759793258434196e+000
      1.5388041557436778e+000 -4.9636989411450747e+000
      7.3195638124014029e-001 2.5823553928644514e+000
      3.8493508961645415e+000 1.8654349251814915e+000
      3.2880480831698522e+000 -5.8857176257776915e-002
      -2.1322841949126579e+000 -7.5013730613463983e+000
      -9.3161209963732627e-001 -1.2594433121896809e-001
      1.1319426255265914e+000 -3.0592919439766519e+000
      -4.4394199711226721e+000 5.4831868375763848e-001
      -3.3295765042725772e-001 2.7070864285337981e-001
      -4.4774193046346298e+000 -4.5731729780211494e-001
      -2.4231987337641168e+000 8.0534603792353388e-001
      -8.9782985108509417e-001 -1.5135104988424388e+000
      1.3663698942538103e+000 2.6194241241851266e+000
      4.9457097698055197e+000 3.8414283347734672e+000
      2.8853937883310614e+000 3.7642265986245088e-001
      -5.6595754370013562e-001 -1.0984137107225096e+000
      -1.6616976581417717e+000 -2.9074354277974086e+000
      4.8206716408203709e+000 3.1900079564774400e+000
      1.5012710964143722e-001 -1.0518916641352840e+000
      -3.1900147011758353e+000 -7.3351210691758268e+000
      1.4063115651831814e+002 -2.8942857954605751e-002
      5.6124842496196325e-001 6.5981095556911873e-001
      -5.9658126428200742e-001 -2.2922238947869542e+000
      -2.1064894688275326e+000 1.4655675177452988e+001
      -2.8479771232122228e+000 1.9083618760720231e+000
      5.6655148235789565e-001 -5.6893733955779968e-001
      1.3695124389787559e+000 5.4049043350341579e+000
      3.6553194844559260e+000 5.5250742757861337e-001
      2.3380055338747181e+000 1.7358483753342799e-001
      -6.4634083723501268e-001 -2.8083383779004006e+001
      -1.5862182607247484e+000 1.8808228918149922e-001
      -8.4185221912441988e-001 -2.6626447261590518e+000
      -6.7309419402119222e+000 -3.0713375673689414e-001
      2.0638624664441158e-001 -1.8533128878794674e+000
      -5.2576669245415149e+000 -5.8297629512774718e-001
      -1.7796056323635117e+000 2.6196979933591740e+000
      -1.4569850676409777e+000 -1.2241087413629155e+000
      1.0807743529391929e+000 3.6318763861460823e+000
      1.2024564526060345e+001 1.1299826727925797e+000
      4.4888824826581475e+000 -1.7086966990468325e-001
      3.9573296030600141e-001 -9.1692780963497345e-001
      4.0097617550171322e-001 -3.2607507223869918e+000
      6.8786475807590515e+000 2.7644499530316078e+000
      5.3204270665882868e-002 3.7308793032957497e+000
      -2.4378675288244800e+000 -1.0698072688219018e+001
      -6.9921609131678480e+001 -2.4859594050144198e-003
      -2.7833614091891494e+000 -2.5168196542969543e+000
      2.9582687016741147e+000 6.8885551062742207e+000
      5.5696937465056982e+000 1.0711838194008108e+001
      -2.6872013099386338e+000 -5.4789056366714819e+000
      -2.4972434232100924e+000 4.2752198168970423e+000
      8.0035505112870471e+000 -8.2358844083291114e+000
      -6.7129348486359222e+000 -2.8634270230059147e+000
      -5.3340440553268378e+000 -8.7076345388857810e+000
      2.4913102611402094e+000 -3.5718626369128387e+001
      2.4400471114694908e+000 8.9062646619447943e+000
      -2.3793578897389636e+000 5.4723072986518515e+000
      -1.3692837254625538e+000 8.7429039190018187e+000
      -8.8779290888200144e+000 2.5324595802328624e+000
      7.2920189488676250e+000 5.2581038065697401e+000
      6.4270904052371121e+000 -3.0594769380478231e+000
      2.7740630924036753e+000 2.7013140012347985e+000
      -2.9680894571136558e+000 5.9907089271420251e+000
      5.1805296975784598e+000 -4.2691240959776211e+000
      -4.0682205099482287e+000 8.7812487045861776e+000
      -8.7113319890029182e+000 2.6489315677258540e+000
      2.8481855772607996e+000 4.6450367655847815e+000
      1.8727910455989832e+001 -4.3862485987747695e+000
      8.7461473553310611e+000 -6.3160454984452876e+000
      5.6499542518508017e+000 4.0241332597416895e+000</_>
    <_>
      1.8932831696120773e+000 5.7362339758697067e-001
      7.9500654948895200e-001 4.7291546161598286e-001
      1.4756854502715766e+000 2.0488020187115876e+000
      4.3683670535584165e+000 1.1406268028832356e+000
      -1.8658488655716010e+000 -4.0877926234636147e-001
      -6.2744808958829279e-002 -5.4148107239691753e-002
      1.2226994981779803e-001 -1.9838008235888765e-001
      7.4797265009639746e-001 5.4853567051077767e-001
      -1.0576537645452007e+000 -4.5107459428687759e+000
      -4.4177336718514200e+000 3.0456894595804025e+000
      6.9983806652762781e-001 1.0470314544079778e-001
      1.7910868977356241e-002 7.9875914562304151e-001
      6.9374590598915520e-001 1.3109088615519799e+000
      2.7940519987205747e+000 3.8029075979752952e-001
      4.7241472767804271e-002 -2.3033171361606605e-001
      7.1476505718037964e-001 -6.8739376432814336e-001
      8.5319193772745305e-001 1.3188541894074812e-001
      3.8447296121257002e-001 1.9755974322151311e+000
      3.2328657129564888e+000 8.7451502029340600e-001
      -8.2495208829282340e-001 -4.1638655192664492e-001
      2.4870850153745350e-001 6.1952831538289233e-001
      -1.9013900813843315e-001 3.3104443293211483e-001
      -3.8678702887114080e-001 -9.4379103420886135e-001
      -3.1214299918087227e+000 -1.0532907981794881e+000
      -7.0045039695248024e-001 -3.2352219180638597e-001
      3.6712676568466557e-001 -4.8301110220562760e-001
      2.8278196604497672e+000 -1.5052481381252754e+000
      -7.6393127904287406e-001 1.0501991241259603e+000
      -9.9424609540161279e-001 -5.7286846306465289e-001
      1.0836305190845505e+000 5.6135570548949631e-001
      4.5339036676199673e-001 -6.5690634816602511e-001
      4.5287350904258705e-001 5.8724136106607849e-001
      -2.3326445249858603e+000 1.5400746961498086e+000
      -1.8272296794664438e+000 -2.8125598431614474e-001
      2.4846170815347893e-001 -7.2373854676059357e-001
      1.1943348411784289e+000 6.9697436835204934e-002
      2.2869550969661850e-002 -3.0212034956755326e-002
      -7.3152752796428473e+000 7.6576000478107824e+000
      -9.4778575313446947e+000 -6.0439950523727557e+000
      -3.1268638193181744e+000 2.7867243909020178e+000
      8.3550181187224418e-002 -6.6052262121103808e-002
      1.5214910957872060e-001 5.4483062798178827e-002
      1.0325117614701256e+000 7.4086013830761566e-001
      2.4765315839784523e+000 1.0714115980705929e+000
      6.2895797232956943e+000 -1.3757359834881449e+000
      3.3633477493793956e-001 1.4773192356457499e-001
      -8.6906216813175799e-002 -5.0599545239537436e-001
      6.8657822279366199e-001 4.2841648671403265e-001
      -2.6794076514299742e-001 5.7973335006187054e-001
      2.9082624217139041e-001 9.0390682242757270e-001
      -2.1535095663182294e-001 7.5593872301419701e-002
      2.2548074000694085e-001 7.9272232958131050e-001
      4.9547266558088193e-001 1.8361065804429473e+000
      2.3109935637402699e+000 1.0777486955726730e-001
      -4.5568206237135728e-001 -2.4964517376976852e-001
      6.3138769020206584e-002 2.7071876134370793e-001
      6.3879083808567749e-001 -3.1485732565220453e-001
      -1.3020959069817986e+000 3.2031219620933067e+000
      -2.1664029724971305e+000 -9.0846166282129970e-001
      3.1672790590625688e-001 5.3513943609875536e+000
      -1.9705313559969266e+000 6.5844326183197299e-002
      1.7453537880968650e-002 1.7557813367321116e-002
      -3.6455408363847197e+000 -2.0306541093004484e+000
      -3.0748655336537278e+000 1.8133886875646705e+000
      4.5422986582929710e+000 -2.3610816761085878e+000
      4.8231708803927825e-001 -1.2956871648931498e+000
      -1.0680103235024476e+000 2.4758619042791588e+000
      -4.1401302073625623e-001 8.5089373610749397e-001
      -6.2348522278894636e-001 -4.4321006378009742e-001
      1.6809234092657763e+000 -3.6487954409689599e-001
      -6.7700418409057259e-002 8.2430009624630940e-001
      5.2859495178411930e-001 -8.1045323631776467e-001
      -5.2256873147054850e-001 4.9715628005930773e-001
      -3.6107618138900877e-001 7.4837678503829808e-001
      1.4230596211038327e-001 -4.8274095806529366e-001
      1.1990066667304280e+000 -2.8679510516722678e-001
      -6.5500313869263860e-001 -1.8748961601392902e-001
      1.0315739101221435e+000 1.4853630597619363e+000
      2.6846469673947468e+000 6.3656944289365491e-001
      -2.0470955118143941e-001 -6.0437120724076832e-001
      2.6568431764836925e-001 2.7969588000036981e-002
      9.0046302604486750e-001 -6.7196339777380334e-002
      1.9088768277430890e+000 -1.7467832346227488e+000
      1.6246161378810160e+000 1.1598178035451685e+000
      -4.0026006264520901e-003 1.3764898523228895e+000
      1.0153400050003811e+000 3.6086467682476819e-001
      5.1468610497790912e-001 -1.1956827553962684e-001
      6.8620257713891730e-001 1.8565002676130922e+000
      -3.8196328290145903e-001 1.5968199248252455e+000
      1.3319527850862360e+000 1.1932775141185374e-001
      3.9298094262258748e-001 5.4958783393532795e-001
      -9.5895099146831836e-002 -1.0391469350885833e-001
      2.4710682241891843e-001 -2.3977067701811197e-001
      -1.5878528042224831e+000 -2.0941281549769086e-001
      -3.1467835483073692e-002 -2.3526468564407193e-002
      -2.0913930476818365e-001 1.5441182683945295e-001
      1.3478721219911522e-002 6.1709724855564538e-003
      -3.5956707321977133e-001 2.9148735049913417e+000
      1.9844474519455911e+001 -2.0122759513496327e+001
      6.6801051528562052e+000 2.7119785314901951e-001
      5.6726433901133355e-001 4.7463766912045136e-001
      -2.8771091606053645e-001 1.0514906375827386e+000
      -4.7776230069754339e-001 -2.1853650144760950e+000
      -3.2526553955876456e+000 -2.0641473327521617e-001
      5.2505858533536620e-001 -3.1904856821550170e-001
      -1.5812555000173545e+000 2.3000630153358437e-001
      -1.5774028780454083e-001 8.4176537380398653e-002
      -4.0623470919102794e-001 -2.5177373467366477e+000
      2.9649868062555834e-001 -2.4215194925924308e+000
      -2.0783576481346770e+000 -2.2384010490122264e-001
      -2.0530313970381120e+000 -2.0899826233909452e-001
      1.6960754331306738e-001 1.3993142901365860e-001
      -3.6309328108148609e-001 -2.1070229640948343e-001
      1.9789750051594803e+000 3.6862306290726482e-001
      4.5798452546779327e+000 -1.8725117927632293e+000
      4.6318798372763753e-001 -2.1032153766387285e-001
      -4.3986431346404781e-001 7.0833871265893322e-001
      -1.8920501087867656e+000 1.4310569362490388e+000
      -1.7760190620301790e+000 -5.5544010190047899e-001
      -6.8594597416236014e-001 -1.4591132189731506e+000
      -2.8677478438962467e-001 -3.2300625350864448e-002
      3.3841936115186030e-002 2.5914976589194696e-002
      6.4719669389277792e+000 -7.8509592115212783e+000
      6.6538823115636587e+000 2.1082759958714470e+000
      -2.1509118848325173e+000 -1.1690345145756806e+000
      -1.0741864857632037e+000 3.5086219570831978e-001
      -9.8176387278116573e-001 -3.9260407275890108e-001
      -6.1222821946645556e-001 -2.6145247837881289e+000
      7.0299398514460854e-001 -1.8080352714190524e+000
      -1.0320044600477258e+000 -9.7810755482025902e-001
      1.4658204311528173e+000 6.5035037309012156e-001
      5.1670528697788520e-001 9.5552990442829888e-002
      -1.8323001373863196e-001 2.7335796452840686e+000
      -4.2778905256001082e-001 2.4129717804888609e+000
      2.3413616707023479e+000 4.9224456260158866e-001
      -1.5925169829115030e-001 -1.8781310731996570e-002
      -1.9687140759849155e-002 -1.2708700503586096e-001
      -2.1583359998348670e-001 1.5986797707407788e-001
      2.1080429650541941e+000 4.6919513912183497e+000
      -4.3053464757652211e+000 1.2664983369691932e-001
      -8.9556138624037121e-002 -3.0358855836004194e-002
      1.0837215496687855e-003 -1.4308170797109482e-001
      -2.7697510760636881e+000 8.0672482545065816e-001
      1.6743877074706787e-001 1.2079458484489878e+000
      -3.5974624347681745e+000 -1.0459950019342923e+000
      4.4681483889138791e+000 1.3508166181222192e-001
      3.7368474529750860e-002 8.3531320222668806e-002
      1.3714903619737180e+001 2.5349247196989588e+000
      -3.9090893576324532e+000 -1.0210759642583538e+000
      2.3431854396267191e+000 -1.1086256782400095e+000
      1.5126814330249502e-001 -2.8646840587766254e-001
      2.0172297893492779e+000 -1.1323119929642931e+000
      -5.2183462492540600e-001 1.0326175420574755e+000
      -5.2490136962893807e-001 -7.2749634677714697e-002
      6.2230012286291891e-001 -6.5704546911348985e-002
      -4.9890068768428080e+000 -1.0227733622019301e-001
      5.6816616405889780e-002 -2.0787417966289183e-002
      1.1288071363872787e+001 5.9715798751960829e+000
      1.0516299351615158e-001 -1.6069411646143714e+000
      1.0435567277015749e+000 -7.4373959711705337e-002
      3.4724813407829386e-001 -7.6509714224142600e-001
      -3.5505672233666526e-003 6.5030551851611462e-001
      -5.3987064225512493e-001 -2.4032378950918723e-001
      -2.8755630934256184e+000 -1.2272010556088169e+000
      8.5055957805185867e-001 -6.9219130267561502e-001
      -4.3872252781899440e-001 -2.4073608852074765e-001
      -2.0702296303989950e-001 4.5890125345751437e-001
      -3.0235748422431274e-001 -1.6695888578828003e-001
      -2.1511301930826798e+000 1.8156256294700756e-002
      1.2114608135171246e-002 -3.2581497022215822e-001
      -5.7855331289048441e-002 5.5812923634628420e-001
      1.4335232164522996e-001 7.3044093705364854e-001
      3.6566985379245720e-001 7.3703766875099563e-001
      2.5794269310513975e+000 9.6578210641938300e-001
      2.4522339393425671e-001 6.1901936555440262e-001
      -5.5469755270017684e-001 -1.1012996275936462e+000
      3.9154554663449176e-001 6.6892349400549389e-001
      -5.1045173960458778e-001 -8.7521572908261203e-001
      -1.6687763221338792e+000 -1.4844551294884429e+000
      2.5352420047057138e+000 3.6786526883583481e-001
      -8.3690040546753930e-001 -1.0384304139694572e-001
      1.1552160163108417e-001 -3.9793288074563022e-003
      -3.0732682364003785e+000 2.7901836436153209e+000
      -1.1039963668789003e+000 -9.9476442562673961e-001
      5.9438582202791601e-001 -6.5194615235378945e+000
      3.9733233024021786e-001 -1.9613201809269762e-001
      2.4999840976539997e-001 -4.3882777877726592e-001
      2.3676301535422750e+000 -2.3523845617185524e+000
      2.5687018480542707e+000 1.3332712831190154e+000
      3.2356871408910093e-001 -2.8863199565750945e+000
      -4.4847315131029863e-001 4.8689769146844319e-001
      3.9808150962984606e-001 -1.0888972469649434e+000
      1.9781966331615553e+000 -2.4275562803028645e+000
      1.8188265500495173e+000 3.8760876650074258e-002
      4.8526654586576740e-001 3.6391252132393728e+000
      -4.3051110872472692e-001 -3.6409637806011930e-001
      -4.3391878746768087e-001 2.4394105482649239e-002
      -4.9334539880113665e-001 -1.3732540430457540e+000
      2.3025874784356016e-002 -1.3988733330110599e+000
      -1.7745581747690473e+000 7.0373446629370950e-001
      1.2076225490005088e+000 -4.1007347287182278e-001
      6.0514356434313354e-001 3.6129484485821744e-003
      4.7780044723463305e-001 2.0002413198985378e+000
      -5.9234450201736022e-001 2.0006902994782592e+000
      1.7216001867409914e+000 1.1133355602757997e+000
      8.8989920406051626e-001 1.5343906982556335e-001
      7.5828701713980795e-001 -1.9342021622166827e-001
      -4.5950972473752438e-001 -2.0108600848831348e+000
      -2.2636819640974868e+000 -1.2550471160854497e+000
      -4.0439626276883367e-001 -6.8414615875842455e-001
      -1.3620063032682443e+000 1.0709024073326365e-001
      1.1529411539288888e-002 1.0894294127799983e-001
      -1.7385796549320609e+000 -2.2053626502943371e+000
      1.3521717318500455e+000 3.7081197354763651e+000
      -7.1442436137836607e+000 3.8792730066635279e+000
      4.9895603125580362e-001 -1.7774042236355148e-001
      -6.5642853556146352e-001 3.4875428625231811e-002
      -7.1077979198577668e-001 1.8582939382509800e+000
      -8.3430902052164246e-001 -7.3854454143495119e-001
      -5.4342503110475260e-001 -2.3303297089922625e+000
      8.1743864644440001e-002 -7.5024075585286509e-002
      -1.5213516612657246e-002 2.1552675288339657e-001
      -6.5844090298214244e+000 5.1270810033695273e+000
      -6.7871966031502025e+000 -1.1588176634707313e+001
      -4.8036515377851616e+000 4.4806135114151715e+000
      1.3298047997144555e-002 -6.6347763941151328e-002
      -6.9944492951609838e-001 4.7843273090718275e-001
      4.4396729170041044e-001 -1.7693413874360913e+000
      4.0437662074815584e-001 5.4501626374448831e-001
      7.2014351962651157e-002 2.3215624051565850e-001
      -1.5564888113570114e+000 -3.4416712156624091e-001
      -4.3541851859685698e-001 -1.4160613781501771e-001
      -7.3186900019006174e-001 -2.3957458810454884e+000
      6.5028384666080430e-001 -2.1009714517859432e+000
      -1.2540843286806227e+000 -9.1782874117394964e-001
      2.0699078381714009e+000 1.5363782688147909e-001
      -4.5023212231387520e-002 7.8231392849407597e-002
      -3.1630418758620998e-001 -6.8527907746696082e-001
      2.1365912236945843e+000 1.4008077286652409e+001
      -1.4403335502190629e+001 -2.5161658557940716e+000
      -9.7301067188627077e-002 -6.1276200601436875e-002
      -1.1801520897456514e+000 1.0707239917367679e+000
      -2.5595185852370950e+000 1.7433756601225101e+000
      -2.2713931840208201e+000 -2.9643998296019874e-001
      -2.9252862279527331e-001 -7.9991752968702978e-001
      -1.2128481650936858e-001 -1.0577840651481055e-001
      1.1833142849490587e-002 -4.3534347599195951e-002
      1.4249950555025315e+000 -4.9252733849314778e-001
      -2.4492990254059217e+000 -9.1748678767179346e+000
      7.8343240137415204e+000 9.5985093039470337e-001
      -1.4184074388311954e+000 8.5001276602280540e-001
      3.4333286691850945e-001 5.6974858002397721e-001
      -2.4725806508862941e-002 -1.3098537540859516e+000
      6.2899248474722835e-001 -2.3140809359030339e+000
      -1.1403325703958413e+000 -1.1003867255637674e+000</_></weights></nnetwork>
</opencv_storage>
